#pragma once
//#include <cstdarg>
namespace Eloquent {
    namespace ML {
        namespace Port {
            class SVM {
                public:
                    /**
                    * Predict class for features vector
                    */
                    int predict(float *x) {
                        float kernels[23] = { 0 };
                        float decisions[1] = { 0 };
                        int votes[2] = { 0 };
                        kernels[0] = compute_kernel(x,   1.99  , -4.15  , 1.93  , 1.37  , -9.45  , 0.37  , -0.09  , -12.37  , -3.61  , -0.67  , -11.21  , 0.24  , -0.72  , -5.97  , -0.82  , 2.46  , 0.96  , -4.27  , 3.42  , 5.9  , -1.2  , 3.28  , 10.8  , 2.26  , 3.12  , 15.6  , 3.09  , 3.0  , 14.49  , 3.64  , 0.39  , 8.74  , 1.79  , -0.84  , 4.18  , -0.85  , -0.46  , 1.96  , 1.03  , 1.95  , 1.14  , 0.14  , 2.79  , -0.1  , -0.8  , 1.01  , -2.52  , 0.24  , 0.39  , -3.8  , -1.28  , -0.26  , -5.07  , 1.91  , 0.38  , -4.24  , -1.28  , 0.16  , -3.16  , -1.87  , -0.12  , -2.28  , 1.13  , -0.16  , -1.52  , -0.24  , -0.02  , -0.66  , -2.35  , 0.16  , 0.05  , -0.32  , 0.78  , 0.41  , 1.06  , 0.72  , 0.51  , 0.41  , -0.0  , 0.63  , -0.36  , 0.06  , 0.75  , -0.47  , 0.0  , 0.96  , -1.43  , 0.49  , 0.61  , 0.87 );
                        kernels[1] = compute_kernel(x,   -1.42  , -5.17  , -0.19  , 7.57  , 4.83  , -2.7  , 2.7  , 7.87  , 2.16  , 2.86  , 11.44  , 2.64  , 4.59  , 15.02  , 1.06  , 2.05  , 13.27  , 1.86  , 1.07  , 9.27  , -0.42  , -1.19  , 4.85  , -1.71  , 0.46  , 2.42  , 0.31  , 1.49  , -0.0  , 1.8  , 2.52  , -1.68  , -0.84  , -0.51  , -3.27  , -0.44  , 0.19  , -4.21  , -0.26  , -2.17  , -4.99  , -0.76  , 0.6  , -3.31  , -2.34  , -0.07  , -2.83  , -0.06  , -0.31  , -2.89  , 1.1  , 0.03  , -1.58  , 0.29  , 0.95  , -0.21  , 0.01  , 0.67  , 0.28  , -0.2  , 0.45  , 0.56  , -0.63  , 0.38  , 0.55  , -0.49  , 0.26  , 0.39  , 0.71  , 0.11  , 0.22  , 0.45  , 0.25  , 0.58  , -1.08  , 0.75  , 0.76  , -0.06  , -0.02  , 0.46  , 0.27  , 0.01  , 0.38  , -0.53  , 0.23  , 0.58  , -0.82  , 0.2  , 0.48  , -0.53 );
                        kernels[2] = compute_kernel(x,   3.73  , -2.12  , -0.27  , -1.01  , -4.96  , -1.24  , -3.09  , -6.32  , -2.98  , 1.39  , -4.52  , -0.95  , -0.12  , -3.75  , 0.83  , -1.04  , -3.37  , -1.15  , 0.49  , -1.83  , -0.99  , 1.16  , -0.36  , 0.83  , 0.55  , 0.29  , 0.58  , 0.12  , 0.48  , -0.27  , 0.44  , 0.65  , -0.09  , 0.21  , 0.39  , -0.06  , -0.23  , 0.2  , -0.91  , -0.26  , 0.06  , -0.34  , -0.01  , -0.04  , 0.75  , -0.09  , 0.31  , -0.9  , -0.29  , 0.27  , -0.86  , -0.13  , -0.04  , 1.01  , 0.09  , 0.15  , -0.48  , -0.09  , 0.16  , -0.95  , -0.18  , -0.06  , 0.71  , -0.06  , 0.21  , -0.49  , -0.07  , 0.33  , -0.57  , -0.2  , 0.0  , 0.32  , -0.18  , -0.16  , -0.1  , -0.22  , -0.13  , -0.84  , -0.11  , 0.04  , -0.32  , -0.24  , -0.04  , -0.02  , -0.2  , -0.06  , -0.27  , 0.17  , 0.29  , -0.7 );
                        kernels[3] = compute_kernel(x,   2.47  , -2.35  , -1.22  , -1.29  , -4.41  , -1.76  , -1.09  , -5.01  , 0.43  , -0.06  , -3.97  , 0.72  , -0.69  , -2.77  , -1.95  , -1.02  , -2.57  , -0.2  , -0.86  , -2.02  , -0.06  , -0.1  , -0.91  , -1.01  , -0.22  , -0.27  , -1.21  , -0.22  , 0.1  , -1.36  , 0.58  , 0.61  , 0.33  , -0.14  , 0.32  , 0.43  , 0.09  , 0.47  , -0.22  , -0.25  , 0.48  , -0.36  , -0.0  , 0.5  , 0.2  , -0.08  , 0.58  , -0.06  , -0.17  , 0.56  , -0.59  , -0.46  , 0.24  , -0.2  , 0.38  , 0.49  , 0.96  , 0.02  , 0.73  , -0.64  , -0.35  , 0.4  , -0.22  , -0.34  , 0.27  , 0.13  , 0.3  , 0.45  , -0.16  , -0.07  , 0.35  , -0.57  , -0.28  , 0.26  , -0.59  , -0.3  , 0.16  , -0.38  , -0.03  , 0.3  , -0.51  , -0.03  , 0.3  , 0.19  , -0.1  , 0.14  , -0.14  , -0.11  , 0.24  , -0.37 );
                        kernels[4] = compute_kernel(x,   0.28  , -11.86  , 2.56  , 2.56  , 2.24  , -2.25  , 6.45  , 15.18  , 2.66  , 6.37  , 19.14  , 1.72  , 0.68  , 13.73  , 3.63  , -3.18  , 7.93  , 0.46  , -3.74  , 6.04  , -1.14  , 1.03  , 6.9  , -1.61  , 2.09  , 4.39  , 1.67  , 2.67  , 1.31  , 1.95  , 4.31  , -0.29  , -0.81  , -0.87  , -3.36  , -1.16  , -2.41  , -4.52  , -0.29  , 0.86  , -3.79  , -0.01  , -0.75  , -3.7  , -1.39  , -1.01  , -3.89  , -0.07  , -0.07  , -3.25  , 0.85  , 0.07  , -1.71  , -2.39  , 0.39  , -0.82  , -0.06  , 0.95  , -0.12  , 0.14  , 0.39  , -0.08  , -0.43  , 0.22  , -0.09  , 0.15  , 0.16  , -0.01  , -0.24  , 0.5  , 0.35  , -0.85  , 0.59  , 0.58  , -0.29  , 0.55  , 0.39  , 0.41  , 0.07  , 0.29  , -0.17  , 0.33  , 0.53  , -0.42  , 0.32  , 0.43  , -0.17  , 0.12  , 0.19  , -0.29 );
                        kernels[5] = compute_kernel(x,   1.12  , 7.96  , 0.52  , 1.34  , 2.93  , 1.73  , 4.74  , 0.17  , 0.1  , 1.81  , -3.3  , -0.14  , 0.35  , -5.19  , -1.23  , -0.33  , -6.08  , -0.52  , -1.35  , -5.18  , -0.17  , -1.01  , -3.55  , -2.86  , 0.54  , -2.09  , 0.33  , 0.75  , -1.13  , -0.71  , 0.08  , -1.38  , 0.17  , -0.3  , -1.19  , 0.7  , -0.17  , -0.51  , -0.78  , 0.7  , 0.24  , 0.28  , 0.38  , 0.63  , -0.83  , -0.16  , 0.13  , -1.19  , 0.02  , -0.03  , 0.75  , 0.28  , 0.16  , -0.06  , 0.06  , 0.26  , -0.79  , -0.05  , 0.33  , -0.49  , 0.21  , 0.42  , 0.25  , 0.35  , 0.49  , -0.12  , 0.26  , 0.56  , -0.62  , 0.12  , 0.37  , -0.63  , 0.06  , 0.19  , -0.17  , -0.08  , 0.04  , -0.11  , 0.11  , 0.23  , -0.48  , 0.34  , 0.23  , -0.43  , 0.17  , 0.04  , 0.11  , 0.04  , 0.11  , -0.47 );
                        kernels[6] = compute_kernel(x,   -0.97  , -5.08  , 0.71  , -1.34  , -5.38  , -0.74  , -0.17  , -4.24  , -0.12  , -1.73  , -3.98  , -0.34  , 0.02  , -2.34  , -0.84  , 0.06  , -0.91  , -0.17  , 0.09  , -0.08  , -0.42  , 0.12  , 0.09  , -0.53  , 0.34  , 0.23  , -0.22  , -0.23  , 0.09  , -0.14  , -0.39  , 0.32  , -0.06  , -0.46  , 0.37  , -0.35  , 0.05  , 0.58  , -0.9  , -0.6  , 0.28  , -0.11  , -0.73  , 0.05  , -0.08  , -0.38  , 0.16  , -0.76  , -0.11  , 0.16  , -0.32  , -0.6  , -0.1  , 0.13  , -0.57  , -0.07  , -0.02  , -0.46  , 0.26  , -0.6  , -0.05  , 0.4  , -0.54  , -0.49  , -0.1  , 0.18  , -0.51  , -0.06  , -0.29  , -0.12  , 0.27  , -0.46  , -0.06  , 0.25  , 0.19  , -0.33  , 0.17  , -0.23  , -0.4  , 0.21  , -0.37  , 0.01  , 0.23  , 0.14  , -0.39  , 0.11  , 0.02  , -0.39  , 0.14  , -0.14 );
                        kernels[7] = compute_kernel(x,   4.34  , 13.56  , 4.62  , -2.51  , 9.58  , 4.76  , -2.98  , 11.47  , -1.47  , 1.73  , 13.1  , -0.34  , 1.53  , 9.77  , -0.12  , 1.0  , 3.13  , 1.34  , 1.44  , -1.34  , 0.06  , 2.76  , -4.55  , -1.07  , -1.11  , -7.39  , -0.31  , -2.36  , -7.11  , -2.58  , 3.84  , -3.35  , -1.15  , -0.35  , -4.15  , 2.54  , -1.95  , -3.72  , -0.94  , 0.64  , -1.11  , -1.87  , 2.86  , -0.37  , 1.4  , -0.45  , -1.22  , 0.35  , -0.48  , -0.74  , -1.41  , 0.99  , 0.12  , -0.01  , 0.99  , 0.11  , 0.43  , -0.46  , -0.03  , -1.25  , -0.24  , -0.19  , -0.14  , 0.22  , 0.03  , 0.61  , 0.16  , 0.17  , -0.47  , -0.34  , -0.15  , -0.4  , -0.01  , -0.06  , -0.02  , 0.0  , 0.09  , -0.86  , 0.19  , 0.12  , -0.67  , 0.17  , -0.05  , -0.16  , -0.17  , -0.17  , -0.03  , -0.02  , -0.09  , 0.07 );
                        kernels[8] = compute_kernel(x,   -0.32  , -3.87  , 1.06  , -0.24  , -8.66  , -0.29  , -3.53  , -12.56  , -1.54  , 0.07  , -9.78  , -0.67  , -0.03  , -7.11  , 2.29  , -1.64  , -3.55  , -6.18  , 10.18  , 9.6  , -1.12  , 3.52  , 13.62  , 7.5  , 2.16  , 13.85  , 2.55  , -3.17  , 9.94  , -2.79  , -3.22  , 9.14  , -2.35  , 0.25  , 8.89  , -0.71  , 0.38  , 5.19  , 3.96  , 0.97  , 1.09  , 2.3  , 0.96  , -1.63  , -0.32  , 1.42  , -3.81  , 0.25  , 0.37  , -4.59  , -0.73  , 0.31  , -3.85  , -2.04  , 0.14  , -3.44  , 0.64  , -0.35  , -2.76  , 1.53  , -0.21  , -1.96  , -3.03  , -0.01  , -1.6  , -0.42  , 0.28  , -0.98  , 2.14  , -0.32  , -0.24  , -1.9  , -0.17  , 0.05  , -0.8  , 0.84  , 0.18  , 0.52  , -0.41  , -0.22  , -0.19  , -0.38  , -0.07  , -0.7  , 0.17  , 0.02  , 0.35  , -0.16  , 0.18  , -0.42 );
                        kernels[9] = compute_kernel(x,   0.88  , -5.79  , 1.5  , -2.29  , -14.2  , -5.0  , -4.81  , -15.44  , -2.05  , 1.36  , -5.46  , 4.84  , 7.39  , 4.99  , -0.51  , 3.78  , 5.44  , 2.13  , 1.17  , 3.98  , 1.33  , 0.78  , 6.8  , 1.57  , 1.34  , 12.41  , -2.5  , 0.24  , 13.8  , -0.52  , 0.25  , 11.0  , -0.38  , -1.41  , 5.11  , -0.23  , -1.55  , 1.83  , 0.85  , 4.16  , -0.01  , 0.31  , -0.13  , -4.66  , 1.8  , -1.52  , -6.02  , -3.65  , 1.32  , -4.71  , -0.68  , 2.4  , -3.19  , 0.75  , 0.47  , -2.8  , -0.98  , -0.21  , -2.18  , -0.46  , 0.72  , -1.18  , -0.22  , 0.67  , -0.47  , -0.84  , 0.17  , -0.34  , 0.24  , 0.22  , 0.16  , -0.39  , 1.28  , 0.85  , -0.97  , 0.33  , 0.46  , 0.2  , -0.01  , 0.11  , 0.2  , 0.55  , 0.65  , -0.92  , 0.76  , 0.77  , -0.16  , 0.55  , 0.44  , 0.36 );
                        kernels[10] = compute_kernel(x,   1.19  , -0.52  , -5.98  , -0.32  , -3.24  , -14.71  , -2.39  , 1.94  , -0.23  , 1.02  , 8.55  , 10.19  , -2.99  , 9.82  , 10.19  , -3.69  , -5.12  , -1.09  , 0.72  , -1.52  , -3.07  , -2.16  , -0.2  , 0.43  , -2.59  , 1.0  , 0.6  , -1.29  , 0.73  , -0.14  , -1.62  , 0.74  , -0.22  , -2.08  , 0.74  , 0.54  , -1.96  , 0.28  , 0.02  , -1.93  , 0.18  , -0.14  , -1.56  , 0.51  , 0.06  , -1.89  , 0.25  , 0.03  , -1.75  , 0.54  , -0.02  , -1.62  , 0.61  , 0.11  , -1.86  , 0.37  , -0.26  , -1.99  , 0.39  , 0.2  , -1.79  , 0.42  , -0.13  , -1.52  , 0.46  , 0.07  , -1.96  , 0.14  , 0.01  , -1.69  , 0.29  , -0.19  , -1.95  , 0.33  , 0.29  , -1.85  , 0.22  , -0.09  , -1.6  , 0.27  , 0.21  , -1.95  , 0.12  , 0.02  , -1.53  , 0.13  , 0.09  , -1.72  , 0.19  , 0.11 );
                        kernels[11] = compute_kernel(x,   -1.39  , 2.58  , 1.08  , -1.45  , 0.97  , -0.79  , -1.73  , 0.65  , 0.11  , -1.15  , 1.27  , 0.2  , -1.12  , 1.41  , -0.1  , -1.03  , 1.45  , 0.1  , -0.97  , 1.55  , -0.07  , -1.31  , 1.24  , 0.33  , -1.12  , 1.09  , -0.21  , -0.95  , 1.53  , 0.15  , -0.88  , 1.34  , -0.01  , -1.21  , 1.14  , 0.2  , -0.98  , 1.24  , 0.34  , -0.78  , 1.18  , -0.08  , -0.91  , 1.22  , 0.27  , -1.0  , 1.33  , 0.45  , -0.77  , 1.34  , 0.36  , -0.49  , 1.4  , 0.41  , -0.61  , 0.95  , -0.02  , -0.67  , 0.88  , 0.07  , -0.64  , 0.87  , 0.17  , -0.45  , 0.94  , 0.2  , -0.44  , 1.09  , 0.55  , -0.33  , 0.86  , 0.33  , -0.24  , 0.95  , 0.34  , -0.33  , 1.06  , 0.58  , -0.16  , 1.12  , 0.59  , -0.06  , 1.12  , 0.28  , -0.14  , 1.09  , 0.27  , 0.05  , 1.11  , 0.41 );
                        kernels[12] = compute_kernel(x,   1.37  , 0.27  , -6.5  , -0.08  , -5.46  , -19.34  , 4.0  , 4.4  , -1.99  , -19.44  , 19.54  , 10.19  , -4.51  , -3.93  , -7.49  , -2.42  , -0.94  , -1.6  , -2.31  , 0.35  , -2.16  , -1.62  , 1.41  , -0.3  , -1.76  , 2.4  , 0.71  , -1.22  , 2.17  , 0.23  , -0.8  , 1.79  , -0.16  , -2.53  , 1.04  , 0.02  , -2.69  , 0.74  , -0.35  , -2.12  , 0.86  , -0.1  , -2.14  , 0.98  , -0.32  , -2.21  , 0.96  , 0.01  , -2.08  , 1.13  , -0.17  , -2.15  , 0.86  , -0.23  , -2.21  , 0.89  , 0.05  , -2.1  , 0.7  , -0.21  , -1.98  , 0.92  , -0.03  , -2.28  , 0.93  , -0.02  , -2.07  , 0.81  , -0.16  , -2.08  , 0.81  , 0.01  , -1.06  , 1.38  , -0.17  , -1.96  , 1.21  , -0.12  , -1.94  , 1.01  , -0.04  , -1.41  , 0.11  , -1.15  , -1.82  , 0.66  , -0.2  , -1.62  , 0.75  , 0.11 );
                        kernels[13] = compute_kernel(x,   1.47  , 1.83  , -1.84  , 1.58  , 1.54  , -2.76  , 2.14  , 1.63  , -4.84  , 3.61  , 1.69  , -11.33  , -2.78  , -4.7  , -9.43  , -4.12  , 0.79  , 10.19  , -19.44  , -12.06  , 10.19  , -0.31  , -1.38  , -1.62  , -0.72  , 0.34  , 1.14  , -2.52  , -1.13  , 3.2  , -1.05  , 0.48  , -0.88  , -1.29  , 0.84  , 0.64  , -1.14  , 0.53  , 0.02  , -0.93  , 0.86  , 0.33  , -1.01  , 0.35  , 0.22  , -0.85  , 0.84  , 0.12  , -1.19  , 0.83  , 0.42  , -0.8  , 0.44  , -0.17  , -0.93  , 0.74  , 0.38  , -0.91  , 0.89  , 0.08  , -1.17  , 0.47  , 0.05  , -1.06  , 0.59  , 0.33  , -0.89  , 0.76  , -0.11  , -0.96  , 0.66  , 0.65  , -0.85  , 0.75  , 0.25  , -0.99  , 0.43  , 0.07  , -0.88  , 0.5  , 0.27  , -1.01  , 0.31  , 0.34  , -0.89  , 0.58  , 0.92  , -0.89  , 0.87  , 0.94 );
                        kernels[14] = compute_kernel(x,   1.13  , 1.05  , -3.65  , 0.38  , 0.33  , -5.08  , -0.89  , -1.98  , -7.41  , 19.76  , -19.66  , 10.19  , 19.76  , -5.64  , -3.48  , -1.21  , -4.41  , -4.6  , 1.54  , -0.58  , -0.17  , -10.31  , 4.28  , 5.02  , 0.75  , -0.16  , -1.51  , -2.12  , 1.04  , 0.92  , -1.03  , 0.62  , -0.32  , -1.9  , 0.22  , 0.41  , -1.69  , 0.59  , -0.54  , -1.38  , 0.56  , -0.07  , -2.36  , 0.1  , 0.48  , -1.33  , -0.3  , -0.28  , -1.94  , 0.01  , -0.02  , -1.58  , -0.25  , -0.17  , -1.98  , -0.61  , 0.71  , -2.24  , -0.38  , -0.72  , -1.05  , 0.46  , -1.04  , -0.91  , 0.85  , 0.29  , -1.71  , 0.24  , -0.01  , -2.59  , -0.69  , 0.82  , -1.74  , -0.35  , -0.57  , -2.24  , -0.06  , 0.4  , -1.09  , 0.46  , -0.19  , -1.18  , 0.74  , 0.29  , -1.99  , 0.08  , 0.53  , -1.75  , -0.77  , 0.36 );
                        kernels[15] = compute_kernel(x,   1.57  , 3.09  , 0.57  , 1.19  , 2.36  , -0.54  , 1.24  , 2.78  , 0.39  , 1.24  , 2.42  , -0.25  , 1.21  , 2.46  , 0.13  , 1.18  , 2.29  , -0.01  , 1.33  , 2.39  , -0.19  , 1.22  , 2.54  , 0.15  , 1.27  , 2.18  , -0.12  , 1.1  , 2.35  , 0.26  , 1.26  , 2.34  , -0.42  , 1.43  , 2.64  , 0.07  , 1.37  , 2.47  , 0.04  , 1.16  , 2.2  , -0.18  , 1.26  , 2.32  , 0.43  , 1.16  , 2.11  , -0.32  , 1.37  , 2.3  , 0.07  , 1.36  , 2.25  , 0.17  , 1.19  , 2.21  , -0.13  , 1.41  , 2.46  , 0.11  , 1.45  , 2.38  , 0.01  , 1.58  , 2.32  , 0.07  , 1.42  , 2.06  , -0.21  , 1.39  , 2.11  , 0.32  , 1.7  , 2.52  , 0.23  , 1.6  , 2.15  , -0.21  , 1.43  , 1.91  , -0.07  , 1.43  , 1.96  , 0.11  , 1.47  , 1.93  , 0.25  , 1.45  , 1.91  , 0.4 );
                        kernels[16] = compute_kernel(x,   2.07  , 1.37  , -1.88  , 2.25  , 1.63  , -2.65  , 2.43  , 1.37  , -4.25  , 1.62  , 0.25  , -5.72  , 1.44  , 0.1  , -1.44  , -19.44  , 3.12  , 10.19  , -3.2  , -3.03  , -12.31  , 2.6  , -0.23  , -7.46  , 3.28  , 2.0  , -2.51  , 2.77  , 5.02  , 6.03  , 1.17  , 1.0  , -0.62  , 1.16  , 1.21  , -0.34  , 0.57  , 1.13  , 0.51  , 0.72  , 2.08  , 1.2  , 1.34  , 1.77  , -0.67  , 1.57  , 2.23  , 0.6  , 1.02  , 1.72  , -0.12  , 0.92  , 1.88  , 0.51  , 1.35  , 2.1  , -0.24  , 1.26  , 2.08  , 0.13  , 0.93  , 1.87  , 0.21  , 1.17  , 1.92  , -0.44  , 1.0  , 2.05  , 0.5  , 1.09  , 1.76  , -0.48  , 0.86  , 1.9  , 0.73  , 1.15  , 1.86  , -0.32  , 0.88  , 1.76  , 0.42  , 1.13  , 1.85  , 0.25  , 0.93  , 1.69  , 0.05  , 0.93  , 1.93  , 0.4 );
                        kernels[17] = compute_kernel(x,   2.77  , 1.87  , -0.61  , 2.85  , 1.95  , -0.54  , 2.98  , 2.24  , -0.43  , 2.98  , 2.08  , -0.96  , 2.88  , 2.02  , -1.35  , 2.76  , 1.85  , -2.1  , 2.63  , 2.01  , -3.54  , 2.91  , 0.42  , -8.72  , 0.65  , -1.98  , -14.97  , 3.49  , 2.88  , -7.61  , -19.44  , 19.54  , 10.19  , -8.29  , -6.19  , -11.46  , 5.14  , 0.19  , -6.88  , 2.69  , 5.55  , 3.5  , 0.14  , 0.45  , -2.62  , 1.93  , 1.4  , -0.06  , 1.5  , 1.85  , 1.15  , 2.58  , 1.6  , -1.02  , 1.74  , 1.81  , 0.68  , 1.68  , 1.45  , -0.46  , 1.65  , 2.05  , 0.59  , 1.35  , 1.59  , 0.02  , 1.51  , 1.48  , 0.03  , 1.48  , 1.68  , 0.4  , 1.55  , 1.6  , -0.59  , 1.36  , 1.68  , 0.65  , 1.72  , 1.55  , -0.31  , 1.39  , 1.75  , 0.51  , 1.27  , 1.43  , 0.26  , 1.58  , 1.54  , -0.13 );
                        kernels[18] = compute_kernel(x,   2.87  , 1.62  , -0.58  , 2.74  , 1.49  , -0.51  , 2.75  , 1.48  , -0.7  , 2.75  , 1.31  , -0.87  , 2.86  , 1.44  , -1.08  , 2.94  , 1.48  , -1.45  , 2.67  , 1.46  , -1.72  , 2.64  , 1.44  , -2.32  , 2.32  , 1.13  , -3.52  , 3.07  , 1.85  , -4.64  , 3.74  , 1.58  , -6.69  , -0.11  , 0.44  , -1.8  , 1.04  , 3.38  , 8.2  , -1.68  , 7.76  , 10.19  , 0.5  , -3.84  , -6.35  , 2.14  , -0.11  , -4.04  , 2.99  , 1.7  , -4.09  , 3.09  , 2.96  , -0.16  , 3.88  , 3.9  , 2.73  , 2.04  , 2.76  , 2.66  , 1.35  , 0.63  , -2.04  , 1.95  , 1.8  , 0.89  , 2.13  , 2.15  , -0.11  , 2.31  , 1.97  , -0.16  , 2.13  , 1.87  , -0.19  , 2.0  , 1.84  , 0.18  , 1.71  , 1.7  , 0.28  , 2.09  , 1.93  , -0.25  , 2.19  , 2.11  , 0.09  , 1.87  , 1.8  , -0.36 );
                        kernels[19] = compute_kernel(x,   3.04  , 2.21  , -0.49  , 3.4  , 2.26  , -0.89  , 3.58  , 2.15  , -1.12  , 3.59  , 2.26  , -1.13  , 3.47  , 2.32  , -0.81  , 3.83  , 2.34  , -0.95  , 3.97  , 2.44  , -1.24  , 3.88  , 2.41  , -0.87  , 3.95  , 2.28  , -0.96  , 4.16  , 2.23  , -1.15  , 4.19  , 2.06  , -1.67  , 4.08  , 1.79  , -1.8  , 4.2  , 1.87  , -2.54  , 3.92  , 1.9  , -2.19  , 3.54  , 1.73  , -1.99  , 3.58  , 1.81  , -1.83  , 3.44  , 1.75  , -1.41  , 3.49  , 1.64  , -0.99  , 4.02  , 2.24  , -1.36  , 4.53  , 2.74  , -1.99  , 3.9  , 2.24  , -2.29  , 2.9  , 1.19  , -3.09  , 1.94  , 0.57  , -4.6  , 0.86  , 1.29  , -2.57  , 11.81  , -9.54  , 10.19  , 7.85  , -1.94  , -0.11  , 0.43  , -3.23  , -10.26  , 4.23  , 3.23  , -3.0  , 1.36  , 8.96  , 6.69  , 0.73  , 0.6  , -2.48 );
                        kernels[20] = compute_kernel(x,   2.94  , 3.18  , -0.23  , 2.85  , 2.94  , -1.1  , 2.9  , 3.15  , -0.1  , 2.72  , 2.81  , -0.59  , 2.94  , 3.05  , -0.23  , 4.68  , 3.34  , 1.53  , 3.19  , 3.68  , 0.26  , 2.91  , 3.07  , 0.61  , 2.93  , 3.08  , 0.55  , 3.13  , 3.13  , 0.37  , 3.09  , 2.78  , 0.33  , 2.95  , 2.64  , 0.18  , 2.93  , 2.62  , 0.16  , 3.23  , 2.62  , -0.1  , 3.16  , 2.29  , -0.56  , 3.46  , 2.2  , -0.94  , 3.53  , 2.12  , -1.28  , 3.44  , 2.3  , -1.12  , 3.48  , 2.11  , -1.0  , 3.44  , 2.07  , -1.07  , 3.8  , 2.3  , -1.31  , 4.22  , 2.54  , -1.25  , 4.24  , 2.51  , -0.95  , 3.88  , 1.81  , -1.41  , 3.73  , 1.61  , -1.73  , 4.07  , 1.94  , -1.81  , 4.46  , 2.25  , -2.27  , 3.99  , 2.19  , -2.21  , 3.74  , 2.16  , -1.92  , 3.44  , 2.05  , -2.31 );
                        kernels[21] = compute_kernel(x,   -0.7  , -4.86  , -0.25  , 0.84  , -3.68  , -0.38  , 0.65  , -3.47  , -0.25  , 0.49  , -3.52  , -0.39  , 0.3  , -3.67  , -0.66  , 0.28  , -3.72  , -0.31  , 0.08  , -3.52  , -0.54  , 0.62  , -3.39  , -0.18  , 0.22  , -3.87  , -0.33  , 0.09  , -3.24  , -0.48  , -0.13  , -3.9  , -0.24  , 0.69  , -3.79  , -0.07  , 0.62  , -3.12  , 0.09  , 0.29  , -3.24  , -0.1  , 0.54  , -3.08  , -0.1  , 1.05  , -3.15  , 0.39  , 1.09  , -2.88  , 0.32  , 1.06  , -3.15  , 0.28  , 0.64  , -2.97  , 0.04  , 0.79  , -2.73  , -0.12  , 0.98  , -2.71  , -0.16  , 0.97  , -2.5  , -0.04  , 1.09  , -2.49  , 0.23  , 1.13  , -2.29  , 0.06  , 1.2  , -2.46  , 0.56  , 0.91  , -2.29  , 0.31  , 1.27  , -2.47  , 0.47  , 1.16  , -2.44  , 0.38  , 1.46  , -2.19  , 0.57  , 1.28  , -2.07  , 0.8 );
                        
                        float decision = -0.117772536475;
                        decision = decision - ( + kernels[0] * -0.078987967755  + kernels[1] * -1.0  + kernels[2] * -1.0  + kernels[3] * -1.0  + kernels[4] * -0.44966259474  + kernels[5] * -1.0  + kernels[6] * -1.0  + kernels[7] * -1.0  + kernels[8] * -0.550035108806  + kernels[9] * -0.269281753512 );
                        decision = decision - ( + kernels[10] * 1.0  + kernels[11] * 1.0  + kernels[12] * 0.212368557136  + kernels[13] * 0.607462370162  + kernels[14] * 0.507977859374  + kernels[15] * 1.0  + kernels[16] * 0.057718605266  + kernels[17] * 0.098492887919  + kernels[18] * 0.456459708115  + kernels[19] * 0.208149441817  + kernels[20] * 1.0  + kernels[21] * 1.0  + kernels[22] * 0.199337995024 );

                        return decision > 0 ? 0 : 1;
                    }

                    /**
                    * Convert class idx to readable name
                    */
                    const char* predictLabel(float *x) {
                        switch (predict(x)) {
                            case 0:
                            return "left";
                            case 1:
                            return "down";
                            default:
                            return "Houston we have a problem";
                        }
                    }

                protected:
                    /**
                    * Compute kernel between feature vector and support vector.
                    * Kernel type: poly
                    */
                    float compute_kernel(float *x, ...) {
                        va_list w;
                        va_start(w, 90);
                        float kernel = 0.0;

                        for (uint16_t i = 0; i < 90; i++) {
                            kernel += x[i] * va_arg(w, double);
                        }

                        return pow((0.002 * kernel) + 0.0, 1);
                    }
                };
            }
        }
    }
